{"predictors": ["reflectivity_3", "reflectivity_4", "n0", "lambda", "t_15"], "units": ["dBZ", "dBZ", "mm -3 -1", "mm -1", "K"], "response_variable": ["Sr"], "N_HIDDEN": 4, "weights_history": [[[[-0.2845984697341919, -0.2784636616706848, 0.5110366940498352, -0.42758849263191223], [-0.3813857436180115, 0.5673489570617676, 0.7553660869598389, 0.11606600880622864], [0.24995368719100952, -0.8803353309631348, 0.26332807540893555, 0.18917076289653778], [-0.4037247896194458, -0.19627287983894348, -0.3870013952255249, -0.5811575651168823], [0.2715628147125244, 0.12996827065944672, -0.5584316253662109, 0.407036155462265]], [[-0.27947646379470825], [-0.7896010875701904], [0.5629242658615112], [0.4632393717765808]]], [[[-0.41933923959732056, -0.13899937272071838, 0.5405557155609131, -0.3736902177333832], [-0.5201569199562073, 0.7025195360183716, 0.7833592295646667, 0.17342045903205872], [0.22762727737426758, -0.8913975358009338, 0.38868942856788635, 0.34613820910453796], [-0.39469000697135925, -0.2144910842180252, -0.3502466678619385, -0.52867591381073], [0.17059700191020966, 0.1254606693983078, -0.407713383436203, 0.40522778034210205]], [[-0.3428439795970917], [-0.8739367127418518], [0.6232491731643677], [0.5503069162368774]]], [[[-0.41736194491386414, -0.0798567458987236, 0.5634954571723938, -0.3622226119041443], [-0.5124655365943909, 0.7574666738510132, 0.8037785887718201, 0.18442510068416595], [0.27978795766830444, -0.9222422242164612, 0.3916712999343872, 0.3835560977458954], [-0.37214621901512146, -0.2771453857421875, -0.40762993693351746, -0.5089825391769409], [0.10449716448783875, 0.1522083580493927, -0.27239567041397095, 0.36287060379981995]], [[-0.3709859848022461], [-0.9362385869026184], [0.6342325210571289], [0.5789471864700317]]], [[[-0.3809174597263336, -0.041990771889686584, 0.5792513489723206, -0.34580808877944946], [-0.45909643173217773, 0.7909315824508667, 0.818187415599823, 0.19692063331604004], [0.31695497035980225, -0.9555397629737854, 0.38594451546669006, 0.4041424095630646], [-0.38438355922698975, -0.3188602030277252, -0.47053682804107666, -0.49454593658447266], [0.04459701478481293, 0.1756884753704071, -0.18153724074363708, 0.3253176808357239]], [[-0.38838931918144226], [-0.9824567437171936], [0.6490378975868225], [0.5900461077690125]]], [[[-0.35423097014427185, -0.012518889270722866, 0.5927944779396057, -0.33747929334640503], [-0.4103781580924988, 0.8153488039970398, 0.8313907980918884, 0.19983303546905518], [0.32924288511276245, -0.9771137237548828, 0.37802812457084656, 0.41981926560401917], [-0.4193347096443176, -0.34193935990333557, -0.5270387530326843, -0.4847925901412964], [0.00234626024030149, 0.19241094589233398, -0.1095716655254364, 0.2891030013561249]], [[-0.3993191719055176], [-1.014703631401062], [0.6652597784996033], [0.5946648120880127]]], [[[-0.3424784243106842, 0.01350406650453806, 0.6084654331207275, -0.3389824330806732], [-0.3771013617515564, 0.8352667093276978, 0.8479428291320801, 0.19175957143306732], [0.3322729170322418, -0.988810122013092, 0.3679467737674713, 0.431373655796051], [-0.45167624950408936, -0.35876667499542236, -0.5749228000640869, -0.47673705220222473], [-0.02531568706035614, 0.2034873366355896, -0.04568903148174286, 0.2496243268251419]], [[-0.4099554121494293], [-1.0389983654022217], [0.6835659742355347], [0.5942410230636597]]], [[[-0.3392944037914276, 0.036604199558496475, 0.6257198452949524, -0.349185049533844], [-0.3518516421318054, 0.8515297770500183, 0.8669997453689575, 0.17440742254257202], [0.3351440727710724, -0.9982454180717468, 0.3579554557800293, 0.44162076711654663], [-0.4748958945274353, -0.3684316873550415, -0.6148539781570435, -0.46484464406967163], [-0.04972430691123009, 0.2105439305305481, 0.009055755101144314, 0.20515914261341095]], [[-0.4232359528541565], [-1.0580151081085205], [0.7032990455627441], [0.5926368236541748]]], [[[-0.34788963198661804, 0.05867110937833786, 0.6423324942588806, -0.36143559217453003], [-0.3382899761199951, 0.8659170866012573, 0.886410117149353, 0.1548071652650833], [0.3369722068309784, -1.0079797506332397, 0.34831127524375916, 0.44915080070495605], [-0.4892479479312897, -0.3749474287033081, -0.6498867273330688, -0.4511398375034332], [-0.07079213857650757, 0.21449239552021027, 0.05789511650800705, 0.15949827432632446]], [[-0.4381139576435089], [-1.0746681690216064], [0.722518801689148], [0.5923421382904053]]], [[[-0.3521454334259033, 0.08076348155736923, 0.6570096015930176, -0.3654244542121887], [-0.3207993805408478, 0.8796360492706299, 0.9040575623512268, 0.14297983050346375], [0.34039559960365295, -1.0184425115585327, 0.34048569202423096, 0.4547242522239685], [-0.49540576338768005, -0.38121262192726135, -0.6777746081352234, -0.44137051701545715], [-0.09289082139730453, 0.21959500014781952, 0.0984218418598175, 0.11882615834474564]], [[-0.45078885555267334], [-1.0913342237472534], [0.7397012114524841], [0.5946540832519531]]], [[[-0.35527607798576355, 0.10164150595664978, 0.6692233681678772, -0.36211130023002625], [-0.30265671014785767, 0.8916540145874023, 0.9196867346763611, 0.13785609602928162], [0.34419265389442444, -1.025438666343689, 0.3335990607738495, 0.45960724353790283], [-0.4926455020904541, -0.38951849937438965, -0.7006101608276367, -0.4297325313091278], [-0.11870625615119934, 0.2255319207906723, 0.13123983144760132, 0.08267491310834885]], [[-0.46118927001953125], [-1.1061177253723145], [0.7542492747306824], [0.5988883972167969]]], [[[-0.35992398858070374, 0.12073343992233276, 0.6796583533287048, -0.35567164421081543], [-0.2861836552619934, 0.9016075730323792, 0.9337313771247864, 0.1359386146068573], [0.34776660799980164, -1.0284696817398071, 0.32693779468536377, 0.4639102816581726], [-0.4830491542816162, -0.39977002143859863, -0.7213762998580933, -0.41528356075286865], [-0.14547601342201233, 0.23075410723686218, 0.1586335152387619, 0.048916321247816086]], [[-0.4698392450809479], [-1.118322730064392], [0.7669074535369873], [0.6044721007347107]]], [[[-0.36734384298324585, 0.1377587914466858, 0.6887144446372986, -0.34958651661872864], [-0.2731448709964752, 0.9094939827919006, 0.946198582649231, 0.1337626576423645], [0.3492409884929657, -1.0283821821212769, 0.3210330307483673, 0.46707725524902344], [-0.4722450375556946, -0.4121350049972534, -0.740185022354126, -0.40291374921798706], [-0.17402347922325134, 0.23507535457611084, 0.18158690631389618, 0.01561703160405159]], [[-0.4770345091819763], [-1.1281617879867554], [0.7780988216400146], [0.6111563444137573]]], [[[-0.3734399676322937, 0.15336161851882935, 0.6958826780319214, -0.3413514494895935], [-0.25860798358917236, 0.9159088730812073, 0.956670343875885, 0.1341332346200943], [0.35015547275543213, -1.025876760482788, 0.3158849775791168, 0.46878781914711], [-0.4600486755371094, -0.4247361421585083, -0.7577881813049316, -0.3903946876525879], [-0.20335179567337036, 0.2389533519744873, 0.20080745220184326, -0.014903985895216465]], [[-0.48310422897338867], [-1.1360297203063965], [0.7877984046936035], [0.6184275150299072]]], [[[-0.3792465031147003, 0.16885359585285187, 0.7028899788856506, -0.3349003195762634], [-0.2441067099571228, 0.9221411347389221, 0.9668662548065186, 0.13507604598999023], [0.3516727685928345, -1.0178827047348022, 0.311474472284317, 0.47034752368927], [-0.4426111876964569, -0.4358785152435303, -0.7734612822532654, -0.37324008345603943], [-0.23429149389266968, 0.24268245697021484, 0.21870139241218567, -0.0469253808259964]], [[-0.4901639521121979], [-1.1416655778884888], [0.797252357006073], [0.6266235709190369]]], [[[-0.38392046093940735, 0.1833207905292511, 0.7088053226470947, -0.328886479139328], [-0.2284054011106491, 0.9274906516075134, 0.9758778214454651, 0.1358659565448761], [0.35346516966819763, -1.0091049671173096, 0.3081595301628113, 0.47085654735565186], [-0.4243342876434326, -0.44765323400497437, -0.7884154319763184, -0.358004093170166], [-0.2663104236125946, 0.2455035150051117, 0.2343982756137848, -0.07835037261247635]], [[-0.4976477026939392], [-1.1462821960449219], [0.8060054779052734], [0.6359356045722961]]], [[[-0.38997411727905273, 0.1984214186668396, 0.7152634859085083, -0.32385164499282837], [-0.21465453505516052, 0.9338332414627075, 0.9852961897850037, 0.1359090805053711], [0.35480114817619324, -0.9939041137695312, 0.30514654517173767, 0.47075262665748596], [-0.4086092710494995, -0.4591830372810364, -0.8019459843635559, -0.3440529406070709], [-0.29668429493904114, 0.24807380139827728, 0.2497858703136444, -0.10868360102176666]], [[-0.5061337947845459], [-1.149611473083496], [0.8149657845497131], [0.645773708820343]]], [[[-0.3957265019416809, 0.2125461995601654, 0.7207435965538025, -0.320078045129776], [-0.20205864310264587, 0.9395301938056946, 0.9938061237335205, 0.13554365932941437], [0.3557026982307434, -0.981154203414917, 0.3024590015411377, 0.47031646966934204], [-0.39366763830184937, -0.47055476903915405, -0.8147280812263489, -0.3306058645248413], [-0.3256004750728607, 0.24916855990886688, 0.26346078515052795, -0.13894934952259064]], [[-0.5155817270278931], [-1.1531168222427368], [0.8232123255729675], [0.65655118227005]]], [[[-0.4028625190258026, 0.22569358348846436, 0.7255221009254456, -0.31607064604759216], [-0.19126571714878082, 0.9444447755813599, 1.0015712976455688, 0.1359376460313797], [0.35506319999694824, -0.9698935747146606, 0.2996482849121094, 0.46876075863838196], [-0.38186702132225037, -0.48229527473449707, -0.8272719383239746, -0.31947240233421326], [-0.3563670217990875, 0.24997849762439728, 0.27520763874053955, -0.16816899180412292]], [[-0.5247512459754944], [-1.1566979885101318], [0.8307852149009705], [0.6676321625709534]]], [[[-0.40747368335723877, 0.23992706835269928, 0.730722188949585, -0.31229785084724426], [-0.17829211056232452, 0.9509060978889465, 1.0096334218978882, 0.1359616369009018], [0.35509493947029114, -0.9547109007835388, 0.29770809412002563, 0.4672798216342926], [-0.3705781400203705, -0.49188756942749023, -0.8374013304710388, -0.3102116882801056], [-0.38867050409317017, 0.2513994574546814, 0.28666967153549194, -0.19996985793113708]], [[-0.5358067750930786], [-1.1595852375030518], [0.8384754657745361], [0.6787338256835938]]], [[[-0.41050097346305847, 0.2534165680408478, 0.7355158925056458, -0.30692997574806213], [-0.1645340472459793, 0.9567141532897949, 1.0172863006591797, 0.13757559657096863], [0.35518646240234375, -0.9421879053115845, 0.29608482122421265, 0.4658449590206146], [-0.36128851771354675, -0.501269519329071, -0.8465545773506165, -0.30264586210250854], [-0.42273110151290894, 0.25182637572288513, 0.29737862944602966, -0.23234526813030243]], [[-0.547380268573761], [-1.1627217531204224], [0.845703661441803], [0.6901009678840637]]], [[[-0.41264188289642334, 0.2662442922592163, 0.7398101687431335, -0.3020313084125519], [-0.1502707600593567, 0.9619894027709961, 1.024308681488037, 0.13951610028743744], [0.3555113971233368, -0.931468665599823, 0.29437413811683655, 0.46458113193511963], [-0.35219606757164, -0.511063277721405, -0.8558429479598999, -0.2967091202735901], [-0.4595450162887573, 0.25091633200645447, 0.3068133294582367, -0.2665962278842926]], [[-0.5597802996635437], [-1.166053056716919], [0.8525001406669617], [0.701819896697998]]], [[[-0.41293084621429443, 0.2783409059047699, 0.7433483600616455, -0.29724714159965515], [-0.13482356071472168, 0.9666205048561096, 1.0305885076522827, 0.14174334704875946], [0.35562774538993835, -0.9223634600639343, 0.29279881715774536, 0.46401605010032654], [-0.3436220586299896, -0.5206489562988281, -0.8654427528381348, -0.2904480993747711], [-0.503191351890564, 0.24927549064159393, 0.3142605125904083, -0.3064926564693451]], [[-0.5740786194801331], [-1.1696008443832397], [0.8587830662727356], [0.713862419128418]]], [[[-0.41544774174690247, 0.2884650230407715, 0.7452958822250366, -0.294008731842041], [-0.12432073056697845, 0.9682830572128296, 1.0351152420043945, 0.14313487708568573], [0.35454919934272766, -0.9162307977676392, 0.29054930806159973, 0.4629216194152832], [-0.33682647347450256, -0.5322799682617188, -0.8769763112068176, -0.28642743825912476], [-0.547838032245636, 0.25168484449386597, 0.3246724605560303, -0.34233352541923523]], [[-0.5870001316070557], [-1.1727237701416016], [0.8645515441894531], [0.7265294194221497]]], [[[-0.4151173233985901, 0.29819852113723755, 0.7465869188308716, -0.2890895903110504], [-0.11235154420137405, 0.9696295261383057, 1.039053201675415, 0.14618772268295288], [0.35361549258232117, -0.9107612371444702, 0.2889055907726288, 0.46161985397338867], [-0.3316080570220947, -0.5429624319076538, -0.8878849148750305, -0.28285688161849976], [-0.5952745676040649, 0.2536865472793579, 0.3340892791748047, -0.37859562039375305]], [[-0.598947286605835], [-1.1756033897399902], [0.8698275089263916], [0.7395238280296326]]], [[[-0.4134209156036377, 0.3081735372543335, 0.747961163520813, -0.28335556387901306], [-0.09990693628787994, 0.9713069200515747, 1.0429656505584717, 0.1505202054977417], [0.3529256284236908, -0.9030423760414124, 0.28669092059135437, 0.4603743851184845], [-0.32608550786972046, -0.5538852214813232, -0.8988255858421326, -0.27839285135269165], [-0.6403614282608032, 0.2554842233657837, 0.3436063230037689, -0.4111986756324768]], [[-0.6095016002655029], [-1.1781023740768433], [0.8749937415122986], [0.7522988319396973]]], [[[-0.4120955467224121, 0.3175435960292816, 0.7493888735771179, -0.2786303162574768], [-0.08868563175201416, 0.9725307822227478, 1.0471243858337402, 0.15419350564479828], [0.35254284739494324, -0.8959984183311462, 0.2852723300457001, 0.45867130160331726], [-0.3201143741607666, -0.5645328164100647, -0.9080156683921814, -0.2740961015224457], [-0.6821346282958984, 0.2568455636501312, 0.3518666923046112, -0.4441223442554474]], [[-0.6197853684425354], [-1.1804183721542358], [0.8799991607666016], [0.7645708322525024]]], [[[-0.409443199634552, 0.32683947682380676, 0.7505353689193726, -0.27313145995140076], [-0.07668114453554153, 0.9738445281982422, 1.050991415977478, 0.16006948053836823], [0.35200032591819763, -0.8889815211296082, 0.28389349579811096, 0.4569789171218872], [-0.31424131989479065, -0.574647843837738, -0.9172255992889404, -0.27026620507240295], [-0.7313874959945679, 0.25757065415382385, 0.3592069447040558, -0.48383191227912903]], [[-0.6309559345245361], [-1.182751178741455], [0.8847458958625793], [0.776416003704071]]], [[[-0.4063399136066437, 0.3358389139175415, 0.7518730163574219, -0.2678907513618469], [-0.06475464254617691, 0.9750049114227295, 1.0549511909484863, 0.16580210626125336], [0.3508971333503723, -0.881869375705719, 0.2829551696777344, 0.45512333512306213], [-0.30941957235336304, -0.5842669010162354, -0.9255011081695557, -0.2671104371547699], [-0.7796730995178223, 0.2583330273628235, 0.36496585607528687, -0.522002637386322]], [[-0.64247727394104], [-1.1848927736282349], [0.8893571496009827], [0.7878590226173401]]], [[[-0.4023789167404175, 0.34427955746650696, 0.7529891133308411, -0.2630014419555664], [-0.05242623761296272, 0.9757471680641174, 1.058558702468872, 0.17137372493743896], [0.34950485825538635, -0.8747802376747131, 0.2816403806209564, 0.45355507731437683], [-0.30559980869293213, -0.5948049426078796, -0.9342436790466309, -0.2649348974227905], [-0.8243520855903625, 0.25893327593803406, 0.37027421593666077, -0.5593276619911194]], [[-0.6535506248474121], [-1.1869287490844727], [0.8937597274780273], [0.7989203929901123]]], [[[-0.3973088562488556, 0.35267576575279236, 0.7542061805725098, -0.25762829184532166], [-0.03946995362639427, 0.9765879511833191, 1.0620899200439453, 0.17752213776111603], [0.34864866733551025, -0.8675629496574402, 0.280757874250412, 0.45262959599494934], [-0.3015803098678589, -0.6046410799026489, -0.9424632787704468, -0.2626712918281555], [-0.8652313351631165, 0.2593564987182617, 0.3746279180049896, -0.5936145782470703]], [[-0.6645128130912781], [-1.1888985633850098], [0.8980400562286377], [0.8097195625305176]]], [[[-0.39455586671829224, 0.36113110184669495, 0.7557978630065918, -0.25384432077407837], [-0.02915644459426403, 0.9777460098266602, 1.0658620595932007, 0.1823379546403885], [0.34800073504447937, -0.8592000007629395, 0.2799016237258911, 0.4511496126651764], [-0.2991710305213928, -0.6139345765113831, -0.9498928785324097, -0.261740505695343], [-0.9038828611373901, 0.25933077931404114, 0.3782893717288971, -0.6267399191856384]], [[-0.6755088567733765], [-1.1905772686004639], [0.9022899270057678], [0.8198924660682678]]], [[[-0.3916240930557251, 0.36950451135635376, 0.7576236724853516, -0.25041696429252625], [-0.019334763288497925, 0.9790382981300354, 1.0697394609451294, 0.1869293749332428], [0.34742966294288635, -0.8504590392112732, 0.2791734039783478, 0.4498402774333954], [-0.29660192131996155, -0.6228066682815552, -0.9565384984016418, -0.26067715883255005], [-0.938965916633606, 0.259369432926178, 0.38171565532684326, -0.6577110886573792]], [[-0.6861488819122314], [-1.1921929121017456], [0.9064557552337646], [0.8297306895256042]]]], "biases_history": [[[-0.17634840309619904, 0.11619860678911209, 0.12357597053050995, -0.09298381954431534], [0.29035162925720215]], [[-0.1115124300122261, 0.05086185783147812, 0.2100398987531662, 0.0973842442035675], [0.2695699632167816]], [[0.012371925637125969, -0.016586167737841606, 0.2595508396625519, 0.21069280803203583], [0.2595359981060028]], [[0.11622290313243866, -0.05443999171257019, 0.29978710412979126, 0.27168089151382446], [0.259517103433609]], [[0.182695209980011, -0.0787053257226944, 0.3296144902706146, 0.3000897467136383], [0.2587631642818451]], [[0.22411762177944183, -0.0975058451294899, 0.3520139753818512, 0.31455743312835693], [0.2556014657020569]], [[0.2557581067085266, -0.1123773455619812, 0.36709293723106384, 0.32539722323417664], [0.25042688846588135]], [[0.2785939574241638, -0.12428981065750122, 0.3737618029117584, 0.34118014574050903], [0.24372509121894836]], [[0.3047942519187927, -0.13318908214569092, 0.37542086839675903, 0.3613536059856415], [0.23755048215389252]], [[0.33211958408355713, -0.13980524241924286, 0.3723791241645813, 0.3886587917804718], [0.23140139877796173]], [[0.35741642117500305, -0.1456424444913864, 0.36522382497787476, 0.41962894797325134], [0.22450879216194153]], [[0.37841278314590454, -0.15063929557800293, 0.35573554039001465, 0.44938531517982483], [0.21720288693904877]], [[0.3984825611114502, -0.15363472700119019, 0.34590277075767517, 0.48109814524650574], [0.2086946666240692]], [[0.42007753252983093, -0.1561381220817566, 0.3358868956565857, 0.5126798748970032], [0.19897888600826263]], [[0.43980538845062256, -0.1577766239643097, 0.3256056010723114, 0.5437703728675842], [0.18824301660060883]], [[0.4561052918434143, -0.1575305163860321, 0.31451794505119324, 0.572844386100769], [0.17701980471611023]], [[0.4731391966342926, -0.15902839601039886, 0.3042198121547699, 0.6006564497947693], [0.16608858108520508]], [[0.4858117699623108, -0.1610734462738037, 0.29402926564216614, 0.6277191042900085], [0.15512029826641083]], [[0.5001850128173828, -0.16339623928070068, 0.2850811779499054, 0.6521335244178772], [0.14471447467803955]], [[0.5119768977165222, -0.1655426025390625, 0.2760865092277527, 0.6750621199607849], [0.13510814309120178]], [[0.5211684703826904, -0.1677241176366806, 0.26781126856803894, 0.6950676441192627], [0.12653200328350067]], [[0.5281602740287781, -0.17223325371742249, 0.26099681854248047, 0.7115262746810913], [0.11919299513101578]], [[0.5364314317703247, -0.17293520271778107, 0.25491780042648315, 0.7296304702758789], [0.11373254656791687]], [[0.544828474521637, -0.17422406375408173, 0.24932271242141724, 0.7475557923316956], [0.10747785866260529]], [[0.5520109534263611, -0.17438001930713654, 0.24275392293930054, 0.7657395601272583], [0.10032346099615097]], [[0.5585002899169922, -0.17509663105010986, 0.23692528903484344, 0.7821509838104248], [0.09227120131254196]], [[0.5618072748184204, -0.1766187995672226, 0.23119290173053741, 0.7954328656196594], [0.0856935903429985]], [[0.5655555129051208, -0.17796139419078827, 0.22634495794773102, 0.8097541928291321], [0.07893507927656174]], [[0.5696461200714111, -0.1797739863395691, 0.22156846523284912, 0.8225088119506836], [0.07219725847244263]], [[0.5744655132293701, -0.18135060369968414, 0.21705467998981476, 0.8344959616661072], [0.06593173742294312]], [[0.5766285061836243, -0.18150877952575684, 0.2128293365240097, 0.8453945517539978], [0.0601331926882267]], [[0.5797195434570312, -0.18142807483673096, 0.2083587944507599, 0.8555843234062195], [0.054773326963186264]]], "activations_history": [[[1.207898497581482, 0.0, 0.0, 0.47203347086906433], [0.17143692076206207]], [[1.9736225605010986, 0.0, 0.0, 0.30657681822776794], [-0.23836329579353333]], [[2.084123134613037, 0.0, 0.0, 0.37002331018447876], [-0.2994205057621002]], [[2.009874105453491, 0.0, 0.0, 0.3742052912712097], [-0.30029818415641785]], [[1.9413971900939941, 0.0, 0.0, 0.3898020386695862], [-0.28467240929603577]], [[1.9107580184936523, 0.0, 0.0, 0.4440799355506897], [-0.2638336420059204]], [[1.9020469188690186, 0.0, 0.0, 0.5381861925125122], [-0.23563876748085022]], [[1.9324367046356201, 0.0, 0.0, 0.6484659910202026], [-0.21878865361213684]], [[1.943674087524414, 0.0, 0.0, 0.7258682250976562], [-0.2069956213235855]], [[1.9504832029342651, 0.0, 0.0, 0.7749147415161133], [-0.20405305922031403]], [[1.9603345394134521, 0.0, 0.0, 0.8106081485748291], [-0.20654329657554626]], [[1.9818384647369385, 0.0, 0.0, 0.847652792930603], [-0.21015407145023346]], [[1.9961894750595093, 0.0, 0.0, 0.8746970295906067], [-0.2147361934185028]], [[2.010017156600952, 0.0, 0.0, 0.9033694863319397], [-0.22018642723560333]], [[2.016890048980713, 0.0, 0.0, 0.9338482022285461], [-0.22159041464328766]], [[2.028167724609375, 0.0, 0.0, 0.966360330581665], [-0.22545430064201355]], [[2.041747808456421, 0.0, 0.0, 1.00172758102417], [-0.22891390323638916]], [[2.061678171157837, 0.0, 0.0, 1.0349197387695312], [-0.23580218851566315]], [[2.0735249519348145, 0.0, 0.0, 1.0693979263305664], [-0.2404577136039734]], [[2.0794668197631836, 0.0, 0.0, 1.09623384475708], [-0.24663886427879333]], [[2.0815072059631348, 0.0, 0.0, 1.122349500656128], [-0.2509675621986389]], [[2.0794756412506104, 0.0, 0.0, 1.1478883028030396], [-0.25515511631965637]], [[2.0972657203674316, 0.0, 0.0, 1.1789358854293823], [-0.2608310282230377]], [[2.107926845550537, 0.0, 0.0, 1.2027735710144043], [-0.26557958126068115]], [[2.111337900161743, 0.0, 0.0, 1.2191423177719116], [-0.26938101649284363]], [[2.1150989532470703, 0.0, 0.0, 1.2380563020706177], [-0.27205443382263184]], [[2.1161482334136963, 0.0, 0.0, 1.2518527507781982], [-0.27754414081573486]], [[2.116889715194702, 0.0, 0.0, 1.266919732093811], [-0.282964289188385]], [[2.113225221633911, 0.0, 0.0, 1.2812795639038086], [-0.2852620482444763]], [[2.1033759117126465, 0.0, 0.0, 1.2899948358535767], [-0.2872543931007385]], [[2.1012606620788574, 0.0, 0.0, 1.304341435432434], [-0.2898673117160797]], [[2.098254680633545, 0.0, 0.0, 1.3176743984222412], [-0.2916269302368164]]], "loss_history": [0.4873829185962677, 0.28729644417762756, 0.26013433933258057, 0.25026437640190125, 0.24506598711013794, 0.24175429344177246, 0.23918910324573517, 0.2369401901960373, 0.2350454032421112, 0.2335670441389084, 0.2323342263698578, 0.23125170171260834, 0.23028795421123505, 0.22938057780265808, 0.22847892343997955, 0.22759108245372772, 0.22675277292728424, 0.225991889834404, 0.22525076568126678, 0.22451741993427277, 0.22382070124149323, 0.22310768067836761, 0.22243794798851013, 0.22181999683380127, 0.22122614085674286, 0.22069276869297028, 0.22012291848659515, 0.21955567598342896, 0.2190549224615097, 0.21858423948287964, 0.218173086643219, 0.21779939532279968], "val_loss_history": [0.3593948781490326, 0.28731194138526917, 0.2754794955253601, 0.26529836654663086, 0.2606757581233978, 0.25742286443710327, 0.2541502118110657, 0.2508905231952667, 0.24717716872692108, 0.2436070442199707, 0.24027734994888306, 0.2375977486371994, 0.23515355587005615, 0.2329258769750595, 0.23070278763771057, 0.22886842489242554, 0.2271425724029541, 0.2256401777267456, 0.22427397966384888, 0.22305351495742798, 0.2216731607913971, 0.2203429639339447, 0.21898609399795532, 0.2179720550775528, 0.21697156131267548, 0.2159787267446518, 0.21498018503189087, 0.21422073245048523, 0.21336473524570465, 0.2127278745174408, 0.21196039021015167, 0.21127064526081085], "mae_history": [0.3425581455230713, 0.25157272815704346, 0.22678135335445404, 0.21806088089942932, 0.21359886229038239, 0.21018774807453156, 0.20685555040836334, 0.20338194072246552, 0.20039725303649902, 0.1982332319021225, 0.19657935202121735, 0.19538652896881104, 0.19447098672389984, 0.19356603920459747, 0.19280774891376495, 0.19218569993972778, 0.19150643050670624, 0.1910446435213089, 0.1905476301908493, 0.1901857554912567, 0.1898311823606491, 0.189212366938591, 0.18897467851638794, 0.18883521854877472, 0.18881484866142273, 0.18867428600788116, 0.18827545642852783, 0.1880275160074234, 0.18784116208553314, 0.18761910498142242, 0.18741850554943085, 0.18730121850967407], "val_mae_history": [0.28868502378463745, 0.2633536458015442, 0.25691941380500793, 0.25407886505126953, 0.2516244649887085, 0.2492266744375229, 0.245973140001297, 0.2423367202281952, 0.23895131051540375, 0.23595185577869415, 0.23363164067268372, 0.23185104131698608, 0.2304825633764267, 0.22934091091156006, 0.22817520797252655, 0.22721149027347565, 0.22619295120239258, 0.2257358580827713, 0.22531305253505707, 0.22505220770835876, 0.22463257610797882, 0.22421999275684357, 0.22402645647525787, 0.2241206169128418, 0.2243477702140808, 0.22410330176353455, 0.22409537434577942, 0.22431716322898865, 0.2241702377796173, 0.22416765987873077, 0.2241814285516739, 0.2240477353334427], "scaling_info": {"mean": [10.39076326504629, 10.687097347727923, 1283.8851026963357, 0.7900620230629954, 267.1103345471136], "scale": [9.81650554406629, 9.313421405007526, 2497.239221776611, 0.20446942347316116, 10.341776771205799]}, "hyperparameters": {"OPTMIZER": "ADAM", "LR": 0.0005, "LOSS_FUNC": "mse", "ACTIVATION": "relu", "BATCH_SIZE": 32, "L1_flag": false, "L1": 0.01}}